<?xml version="1.0"?>
<opencv_storage>
<cascade>
  <stageType>BOOST</stageType>
  <featureType>LBP</featureType>
  <height>48</height>
  <width>48</width>
  <stageParams>
    <boostType>GAB</boostType>
    <minHitRate>9.9000000953674316e-01</minHitRate>
    <maxFalseAlarm>5.0000000000000000e-01</maxFalseAlarm>
    <weightTrimRate>9.4999998807907104e-01</weightTrimRate>
    <maxDepth>1</maxDepth>
    <maxWeakCount>100</maxWeakCount></stageParams>
  <featureParams>
    <maxCatCount>256</maxCatCount>
    <featSize>1</featSize></featureParams>
  <stageNum>7</stageNum>
  <stages>
    <!-- stage 0 -->
    <_>
      <maxWeakCount>10</maxWeakCount>
      <stageThreshold>-1.0382064580917358e+00</stageThreshold>
      <weakClassifiers>
        <_>
          <internalNodes>
            0 -1 8 2105114493 746454975 -1052673 -285216769 -16794113 -1
            -270532739 2097020925</internalNodes>
          <leafValues>
            -2.0916193723678589e-01 7.5232928991317749e-01</leafValues></_>
        <_>
          <internalNodes>
            0 -1 55 805109759 -1 -537133057 -229377 1609858943 -513
            -536870913 -720897</internalNodes>
          <leafValues>
            -2.9216513037681580e-01 6.3605302572250366e-01</leafValues></_>
        <_>
          <internalNodes>
            0 -1 34 -268443777 -268697601 -1073742097 -281018881 -65665
            -524321 -262273 -288293024</internalNodes>
          <leafValues>
            -4.0287321805953979e-01 4.8817422986030579e-01</leafValues></_>
        <_>
          <internalNodes>
            0 -1 44 -268436609 -306209289 -1073905737 -269148185
            -4194945 -1 -270540945 -289612700</internalNodes>
          <leafValues>
            -3.8408252596855164e-01 4.1427960991859436e-01</leafValues></_>
        <_>
          <internalNodes>
            0 -1 46 -10537089 -1084230209 -116814835 -1373891593
            -269399429 -26596949 -1282251 -852997</internalNodes>
          <leafValues>
            -3.7838479876518250e-01 3.8244974613189697e-01</leafValues></_>
        <_>
          <internalNodes>
            0 -1 4 1342238912 -733956942 -855317695 -34112001 -706616079
            -107088461 -430580737 -1052705</internalNodes>
          <leafValues>
            -3.2415163516998291e-01 3.9625829458236694e-01</leafValues></_>
        <_>
          <internalNodes>
            0 -1 58 802519287 -805576769 2030564735 -544288937
            1539644277 -16914401 -1079301125 -983273</internalNodes>
          <leafValues>
            -3.5992902517318726e-01 3.3768132328987122e-01</leafValues></_>
        <_>
          <internalNodes>
            0 -1 17 -1568958497 -1892714888 92999135 -1408878468
            1328175579 -891094856 -556107663 -34075499</internalNodes>
          <leafValues>
            -3.8317358493804932e-01 2.7125036716461182e-01</leafValues></_>
        <_>
          <internalNodes>
            0 -1 36 773854325 -1106715149 -136839169 -805534785
            -1277011459 -319042651 -17154051 -1342689356</internalNodes>
          <leafValues>
            -4.3617385625839233e-01 2.1777799725532532e-01</leafValues></_>
        <_>
          <internalNodes>
            0 -1 21 -349229233 1874310239 -258418339 -495649469
            -347649491 -874825609 -152372698 -462225562</internalNodes>
          <leafValues>
            -4.1224414110183716e-01 2.4359904229640961e-01</leafValues></_></weakClassifiers></_>
    <!-- stage 1 -->
    <_>
      <maxWeakCount>12</maxWeakCount>
      <stageThreshold>-9.7378104925155640e-01</stageThreshold>
      <weakClassifiers>
        <_>
          <internalNodes>
            0 -1 52 -524289 -17 -8912901 -1343037441 1543462911 -2097153
            -805371905 2146500603</internalNodes>
          <leafValues>
            -1.7690096795558929e-01 8.1484633684158325e-01</leafValues></_>
        <_>
          <internalNodes>
            0 -1 60 729153535 -532481 -133121 -66129 2113230839 -4231169
            -545792137 -655369</internalNodes>
          <leafValues>
            -2.6991811394691467e-01 6.3696312904357910e-01</leafValues></_>
        <_>
          <internalNodes>
            0 -1 40 -975700113 -271584993 -887922705 -268700273
            -342103169 -336860967 -23349147 -287770592</internalNodes>
          <leafValues>
            -4.5044252276420593e-01 4.1387701034545898e-01</leafValues></_>
        <_>
          <internalNodes>
            0 -1 57 267747327 -2097153 -1 -134570241 1316323159
            -67379233 -8782337 -722969</internalNodes>
          <leafValues>
            -3.9212003350257874e-01 4.1605907678604126e-01</leafValues></_>
        <_>
          <internalNodes>
            0 -1 50 -805306513 -1351665857 2146398519 -339738909
            -35652001 -35655681 -302125961 -452989085</internalNodes>
          <leafValues>
            -3.6142879724502563e-01 4.0858301520347595e-01</leafValues></_>
        <_>
          <internalNodes>
            0 -1 3 -1069493536 1880664178 -1367292332 -656383082
            52485029 -1118439037 -60299045 -67113985</internalNodes>
          <leafValues>
            -3.7580174207687378e-01 3.1668451428413391e-01</leafValues></_>
        <_>
          <internalNodes>
            0 -1 9 1467833725 821419767 -280579 -83886209 -268444331
            -587366401 -268452183 -119930881</internalNodes>
          <leafValues>
            -3.0401766300201416e-01 3.9329379796981812e-01</leafValues></_>
        <_>
          <internalNodes>
            0 -1 24 -1483076547 -1428532650 1568849407 -1408725670
            -387892482 -88886541 -1683514379 -1963411280</internalNodes>
          <leafValues>
            -4.3929371237754822e-01 2.5745651125907898e-01</leafValues></_>
        <_>
          <internalNodes>
            0 -1 43 979314175 233337307 -251456305 -1369547937
            -1572839361 -1164787071 -1029014732 -539165255</internalNodes>
          <leafValues>
            -4.4478547573089600e-01 2.4112395942211151e-01</leafValues></_>
        <_>
          <internalNodes>
            0 -1 30 1111814784 1439216439 -733998623 1440681113
            1881511848 -1093318497 136646827 804236203</internalNodes>
          <leafValues>
            -3.2731285691261292e-01 3.2121697068214417e-01</leafValues></_>
        <_>
          <internalNodes>
            0 -1 27 -281065601 -12730777 -1075838997 -353339833
            -269099409 -19275915 -285231506 -286195870</internalNodes>
          <leafValues>
            -3.1629621982574463e-01 3.3708235621452332e-01</leafValues></_>
        <_>
          <internalNodes>
            0 -1 63 218428895 -2045202317 1996997333 -287958847
            197147285 -104197813 -629122121 2129943665</internalNodes>
          <leafValues>
            -4.9251723289489746e-01 2.0891740918159485e-01</leafValues></_></weakClassifiers></_>
    <!-- stage 2 -->
    <_>
      <maxWeakCount>12</maxWeakCount>
      <stageThreshold>-1.0412138700485229e+00</stageThreshold>
      <weakClassifiers>
        <_>
          <internalNodes>
            0 -1 0 -33556481 1002307575 -18633 -8392713 -34080865
            -270532617 -323011459 2111696893</internalNodes>
          <leafValues>
            -1.9639305770397186e-01 8.1711757183074951e-01</leafValues></_>
        <_>
          <internalNodes>
            0 -1 64 804256767 -8921281 -268435585 -268877911 1869983679
            -1611137034 -25093 1878507223</internalNodes>
          <leafValues>
            -2.9815798997879028e-01 6.3383072614669800e-01</leafValues></_>
        <_>
          <internalNodes>
            0 -1 62 1878392831 -705962049 -13 -603983881 1190483319
            -1611137025 -12722185 -269156409</internalNodes>
          <leafValues>
            -3.1891781091690063e-01 5.5292886495590210e-01</leafValues></_>
        <_>
          <internalNodes>
            0 -1 39 -285212801 -12583561 2147483503 -407765121
            -293875921 -17432577 -687878801 -287383708</internalNodes>
          <leafValues>
            -3.4237271547317505e-01 4.6266129612922668e-01</leafValues></_>
        <_>
          <internalNodes>
            0 -1 45 -1610794657 -1644333193 -151015897 -1556189259
            -1342865409 -267 -17400495 -2097157</internalNodes>
          <leafValues>
            -3.1041997671127319e-01 4.6711698174476624e-01</leafValues></_>
        <_>
          <internalNodes>
            0 -1 15 1700118679 2039123499 -1154513829 530907138
            -484520449 -17190954 -872543445 1073676843</internalNodes>
          <leafValues>
            -3.2445275783538818e-01 4.3108546733856201e-01</leafValues></_>
        <_>
          <internalNodes>
            0 -1 19 -1365804329 713572566 1360052695 -866204030
            -2122317219 -1733787517 -830236495 -1903658172</internalNodes>
          <leafValues>
            -4.6350732445716858e-01 2.7028778195381165e-01</leafValues></_>
        <_>
          <internalNodes>
            0 -1 20 -984153489 1300743306 1342194071 -494436285
            -2088107678 159384064 -217974250 -291838393</internalNodes>
          <leafValues>
            -3.7331047654151917e-01 3.2464697957038879e-01</leafValues></_>
        <_>
          <internalNodes>
            0 -1 42 -402393872 1343546568 1550088732 -1783512025
            1210100898 -936567213 -984124192 -83891185</internalNodes>
          <leafValues>
            -3.1138685345649719e-01 3.8573300838470459e-01</leafValues></_>
        <_>
          <internalNodes>
            0 -1 54 219962299 -3112509 1225378133 -1777188781 1888567571
            -921173622 -1476271509 -73365403</internalNodes>
          <leafValues>
            -4.0900290012359619e-01 2.9211589694023132e-01</leafValues></_>
        <_>
          <internalNodes>
            0 -1 38 -1937832133 993106955 968095511 -537182275
            -957067771 -1690894579 -1661694948 -298815296</internalNodes>
          <leafValues>
            -3.2543364167213440e-01 3.4773498773574829e-01</leafValues></_>
        <_>
          <internalNodes>
            0 -1 7 1817045579 547176923 1174408159 -996485878 -494395335
            1770225675 1510545713 -252383045</internalNodes>
          <leafValues>
            -4.5123323798179626e-01 2.4834245443344116e-01</leafValues></_></weakClassifiers></_>
    <!-- stage 3 -->
    <_>
      <maxWeakCount>11</maxWeakCount>
      <stageThreshold>-7.6851600408554077e-01</stageThreshold>
      <weakClassifiers>
        <_>
          <internalNodes>
            0 -1 12 1471673439 2012724583 1325313591 -579339009
            -285242113 -79691921 -847999411 2020597371</internalNodes>
          <leafValues>
            -1.3863943517208099e-01 8.2566946744918823e-01</leafValues></_>
        <_>
          <internalNodes>
            0 -1 49 -378536577 -377569685 -469797009 -406847681
            -352717265 -1477681265 -990538202 -387982297</internalNodes>
          <leafValues>
            -3.1971040368080139e-01 6.2946861982345581e-01</leafValues></_>
        <_>
          <internalNodes>
            0 -1 1 2042453117 1026784997 -8392787 -583144195 -1208244740
            -16809986 -1628525059 -306326023</internalNodes>
          <leafValues>
            -3.4772890806198120e-01 5.6374686956405640e-01</leafValues></_>
        <_>
          <internalNodes>
            0 -1 61 794885359 -710344706 -16785417 267525246 -2064556256
            -134234251 -600535916 -269108171</internalNodes>
          <leafValues>
            -4.1302528977394104e-01 4.2986989021301270e-01</leafValues></_>
        <_>
          <internalNodes>
            0 -1 35 -142753953 -46436361 -1081361 1647378215 -272640897
            -2401420 -553853905 -826749404</internalNodes>
          <leafValues>
            -3.9735543727874756e-01 4.2890197038650513e-01</leafValues></_>
        <_>
          <internalNodes>
            0 -1 5 -629110654 -1304913870 1426080210 777031682
            -1583165888 -1023360883 -1189045064 -72883669</internalNodes>
          <leafValues>
            -4.3862140178680420e-01 3.9253106713294983e-01</leafValues></_>
        <_>
          <internalNodes>
            0 -1 59 150270461 -792227705 37583 -665714549 823202049
            -1610084344 -2092858927 -611258205</internalNodes>
          <leafValues>
            -4.0322017669677734e-01 3.6780878901481628e-01</leafValues></_>
        <_>
          <internalNodes>
            0 -1 16 -523802057 -1604612319 -67154194 -260954557
            -977857458 -50332034 -1359968633 -90020313</internalNodes>
          <leafValues>
            -3.5083273053169250e-01 4.4164219498634338e-01</leafValues></_>
        <_>
          <internalNodes>
            0 -1 10 1909814071 1912963267 16908441 -795279221 -754924967
            8798338 -1609975324 -1129780247</internalNodes>
          <leafValues>
            -3.8876745104789734e-01 3.7312567234039307e-01</leafValues></_>
        <_>
          <internalNodes>
            0 -1 26 -1073627004 1427177475 1764891539 -1852619263
            1409465579 146136977 -130513521 990873218</internalNodes>
          <leafValues>
            -3.2204431295394897e-01 4.6485137939453125e-01</leafValues></_>
        <_>
          <internalNodes>
            0 -1 6 73486343 67948549 34973 -1341632421 -1878490495
            -1073741696 -1316781431 -1766982071</internalNodes>
          <leafValues>
            -4.3243724107742310e-01 3.1548881530761719e-01</leafValues></_></weakClassifiers></_>
    <!-- stage 4 -->
    <_>
      <maxWeakCount>9</maxWeakCount>
      <stageThreshold>-9.4566422700881958e-01</stageThreshold>
      <weakClassifiers>
        <_>
          <internalNodes>
            0 -1 53 770916313 -765313186 1861943031 565210385 11619524
            -276988051 -1871343873 2146727911</internalNodes>
          <leafValues>
            -4.0953105688095093e-01 7.5014162063598633e-01</leafValues></_>
        <_>
          <internalNodes>
            0 -1 31 -869688753 1663696229 1811758639 -348655815
            1878641483 -268992514 -990546577 -829769465</internalNodes>
          <leafValues>
            -3.4174737334251404e-01 6.5731805562973022e-01</leafValues></_>
        <_>
          <internalNodes>
            0 -1 41 -1325395685 357634185 285804680 -2117599089
            1476420634 -1207959407 -1979170815 -269581941</internalNodes>
          <leafValues>
            -4.6629744768142700e-01 5.1749676465988159e-01</leafValues></_>
        <_>
          <internalNodes>
            0 -1 51 25354302 -1744764285 16809984 -796786664 1074356258
            -1876918262 1661042864 -291397625</internalNodes>
          <leafValues>
            -4.3020355701446533e-01 5.1594167947769165e-01</leafValues></_>
        <_>
          <internalNodes>
            0 -1 29 539372121 13665536 285212753 -669900789 -1073545079
            -1920466527 -805173238 -74831736</internalNodes>
          <leafValues>
            -4.7765064239501953e-01 4.3766990303993225e-01</leafValues></_>
        <_>
          <internalNodes>
            0 -1 32 1129829013 51095569 -1520368372 -1044364158
            1695615129 -1469823903 336167810 270729287</internalNodes>
          <leafValues>
            -3.7740719318389893e-01 5.5961060523986816e-01</leafValues></_>
        <_>
          <internalNodes>
            0 -1 2 1359306873 545497091 82073 -1718583293 -2129559373
            -2134769664 -1845483378 684294273</internalNodes>
          <leafValues>
            -5.0315469503402710e-01 4.1339558362960815e-01</leafValues></_>
        <_>
          <internalNodes>
            0 -1 28 -1044150757 1966193186 1881727239 -114030548
            327045018 1279698852 1643389130 172957866</internalNodes>
          <leafValues>
            -3.5491910576820374e-01 5.5783408880233765e-01</leafValues></_>
        <_>
          <internalNodes>
            0 -1 48 -2129551285 1124143169 33159 -846655463 -1971262949
            33554448 -1744797646 -259833855</internalNodes>
          <leafValues>
            -4.4651409983634949e-01 4.3353191018104553e-01</leafValues></_></weakClassifiers></_>
    <!-- stage 5 -->
    <_>
      <maxWeakCount>7</maxWeakCount>
      <stageThreshold>-8.2118260860443115e-01</stageThreshold>
      <weakClassifiers>
        <_>
          <internalNodes>
            0 -1 56 77711509 -13410704 1878976098 1038679928 108006414
            897023871 -998847078 993010979</internalNodes>
          <leafValues>
            -3.8795182108879089e-01 7.7962237596511841e-01</leafValues></_>
        <_>
          <internalNodes>
            0 -1 11 1430601997 277217280 16818184 1363247106 -1874739197
            -1006632960 -1065287671 432865289</internalNodes>
          <leafValues>
            -5.3407549858093262e-01 6.2512487173080444e-01</leafValues></_>
        <_>
          <internalNodes>
            0 -1 25 -800221168 1090601219 270532624 1627389955 67141633
            -1067411680 -2147440625 462561432</internalNodes>
          <leafValues>
            -4.4765642285346985e-01 6.5318483114242554e-01</leafValues></_>
        <_>
          <internalNodes>
            0 -1 18 1364312698 1157759494 -805240441 -2146434624
            -2063039838 -2130176768 1111621649 -805033841</internalNodes>
          <leafValues>
            -3.6654895544052124e-01 7.6910859346389771e-01</leafValues></_>
        <_>
          <internalNodes>
            0 -1 13 -1610571698 287721104 870449169 19416096 2098827
            -1910430492 2361560 -1411439606</internalNodes>
          <leafValues>
            -4.2180323600769043e-01 6.7657297849655151e-01</leafValues></_>
        <_>
          <internalNodes>
            0 -1 37 -1858010977 -1795129332 285212678 -2013265647
            -2147483624 -2147352448 -939522048 -1988001782</internalNodes>
          <leafValues>
            -5.2578496932983398e-01 5.5589956045150757e-01</leafValues></_>
        <_>
          <internalNodes>
            0 -1 47 1889988659 -1016353990 788475493 -1549599382
            -1930977300 -2065760394 -2067932157 -787936145</internalNodes>
          <leafValues>
            -3.8662040233612061e-01 7.3794305324554443e-01</leafValues></_></weakClassifiers></_>
    <!-- stage 6 -->
    <_>
      <maxWeakCount>5</maxWeakCount>
      <stageThreshold>2.7158635854721069e-01</stageThreshold>
      <weakClassifiers>
        <_>
          <internalNodes>
            0 -1 27 1073926146 16777280 1 4460545 11 -1879048192 3
            42655763</internalNodes>
          <leafValues>
            -5.2721214294433594e-01 7.9537540674209595e-01</leafValues></_>
        <_>
          <internalNodes>
            0 -1 23 -2138410748 -1876423582 115418144 288491520 44073992
            74476820 14681097 -1593761784</internalNodes>
          <leafValues>
            -4.7001412510871887e-01 8.6170536279678345e-01</leafValues></_>
        <_>
          <internalNodes>
            0 -1 33 107802 1090520609 606602280 -1874773504 1073741824
            402954504 -935160828 -1073709053</internalNodes>
          <leafValues>
            -5.0713628530502319e-01 8.1826144456863403e-01</leafValues></_>
        <_>
          <internalNodes>
            0 -1 22 -515684272 1543635968 1073742850 1359085569 525569
            268477968 17302665 67108995</internalNodes>
          <leafValues>
            -4.4785466790199280e-01 8.8598102331161499e-01</leafValues></_>
        <_>
          <internalNodes>
            0 -1 14 -2145054446 1096843281 585772072 1092681760 73704579
            -2144061888 -2077227904 -905444342</internalNodes>
          <leafValues>
            -4.2418169975280762e-01 9.4056332111358643e-01</leafValues></_></weakClassifiers></_></stages>
  <features>
    <_>
      <rect>
        0 0 1 1</rect></_>
    <_>
      <rect>
        0 3 1 1</rect></_>
    <_>
      <rect>
        0 6 1 1</rect></_>
    <_>
      <rect>
        0 13 8 9</rect></_>
    <_>
      <rect>
        0 13 16 9</rect></_>
    <_>
      <rect>
        0 16 6 8</rect></_>
    <_>
      <rect>
        0 18 1 2</rect></_>
    <_>
      <rect>
        0 21 2 1</rect></_>
    <_>
      <rect>
        0 22 1 1</rect></_>
    <_>
      <rect>
        0 27 1 1</rect></_>
    <_>
      <rect>
        0 30 1 1</rect></_>
    <_>
      <rect>
        0 39 1 2</rect></_>
    <_>
      <rect>
        0 45 1 1</rect></_>
    <_>
      <rect>
        1 1 9 7</rect></_>
    <_>
      <rect>
        1 4 6 7</rect></_>
    <_>
      <rect>
        3 6 9 8</rect></_>
    <_>
      <rect>
        4 32 2 2</rect></_>
    <_>
      <rect>
        5 0 2 1</rect></_>
    <_>
      <rect>
        5 10 13 12</rect></_>
    <_>
      <rect>
        6 7 1 1</rect></_>
    <_>
      <rect>
        6 45 1 1</rect></_>
    <_>
      <rect>
        7 45 2 1</rect></_>
    <_>
      <rect>
        8 16 7 8</rect></_>
    <_>
      <rect>
        9 2 6 6</rect></_>
    <_>
      <rect>
        10 4 2 1</rect></_>
    <_>
      <rect>
        11 8 8 8</rect></_>
    <_>
      <rect>
        11 11 6 7</rect></_>
    <_>
      <rect>
        12 45 2 1</rect></_>
    <_>
      <rect>
        14 9 9 5</rect></_>
    <_>
      <rect>
        15 2 2 2</rect></_>
    <_>
      <rect>
        15 10 9 8</rect></_>
    <_>
      <rect>
        15 45 1 1</rect></_>
    <_>
      <rect>
        17 21 10 8</rect></_>
    <_>
      <rect>
        17 24 7 3</rect></_>
    <_>
      <rect>
        17 45 1 1</rect></_>
    <_>
      <rect>
        17 45 2 1</rect></_>
    <_>
      <rect>
        21 1 2 3</rect></_>
    <_>
      <rect>
        22 0 3 1</rect></_>
    <_>
      <rect>
        22 1 6 2</rect></_>
    <_>
      <rect>
        23 45 1 1</rect></_>
    <_>
      <rect>
        24 45 2 1</rect></_>
    <_>
      <rect>
        26 0 2 1</rect></_>
    <_>
      <rect>
        26 13 7 10</rect></_>
    <_>
      <rect>
        29 0 1 1</rect></_>
    <_>
      <rect>
        30 45 1 1</rect></_>
    <_>
      <rect>
        33 0 1 1</rect></_>
    <_>
      <rect>
        33 0 2 1</rect></_>
    <_>
      <rect>
        34 45 2 1</rect></_>
    <_>
      <rect>
        35 45 2 1</rect></_>
    <_>
      <rect>
        36 45 2 1</rect></_>
    <_>
      <rect>
        39 45 2 1</rect></_>
    <_>
      <rect>
        44 21 1 1</rect></_>
    <_>
      <rect>
        45 0 1 1</rect></_>
    <_>
      <rect>
        45 1 1 1</rect></_>
    <_>
      <rect>
        45 6 1 1</rect></_>
    <_>
      <rect>
        45 8 1 1</rect></_>
    <_>
      <rect>
        45 10 1 1</rect></_>
    <_>
      <rect>
        45 13 1 1</rect></_>
    <_>
      <rect>
        45 15 1 1</rect></_>
    <_>
      <rect>
        45 23 1 1</rect></_>
    <_>
      <rect>
        45 25 1 1</rect></_>
    <_>
      <rect>
        45 25 1 3</rect></_>
    <_>
      <rect>
        45 32 1 1</rect></_>
    <_>
      <rect>
        45 37 1 1</rect></_>
    <_>
      <rect>
        45 45 1 1</rect></_></features></cascade>
</opencv_storage>
