<?xml version="1.0"?>
<opencv_storage>
<stage0>
  <maxWeakCount>10</maxWeakCount>
  <stageThreshold>-1.0382064580917358e+00</stageThreshold>
  <weakClassifiers>
    <_>
      <internalNodes>
        0 -1 4288 2105114493 746454975 -1052673 -285216769 -16794113 -1
        -270532739 2097020925</internalNodes>
      <leafValues>
        -2.0916193723678589e-01 7.5232928991317749e-01</leafValues></_>
    <_>
      <internalNodes>
        0 -1 141116 805109759 -1 -537133057 -229377 1609858943 -513
        -536870913 -720897</internalNodes>
      <leafValues>
        -2.9216513037681580e-01 6.3605302572250366e-01</leafValues></_>
    <_>
      <internalNodes>
        0 -1 86846 -268443777 -268697601 -1073742097 -281018881 -65665
        -524321 -262273 -288293024</internalNodes>
      <leafValues>
        -4.0287321805953979e-01 4.8817422986030579e-01</leafValues></_>
    <_>
      <internalNodes>
        0 -1 124450 -268436609 -306209289 -1073905737 -269148185
        -4194945 -1 -270540945 -289612700</internalNodes>
      <leafValues>
        -3.8408252596855164e-01 4.1427960991859436e-01</leafValues></_>
    <_>
      <internalNodes>
        0 -1 128232 -10537089 -1084230209 -116814835 -1373891593
        -269399429 -26596949 -1282251 -852997</internalNodes>
      <leafValues>
        -3.7838479876518250e-01 3.8244974613189697e-01</leafValues></_>
    <_>
      <internalNodes>
        0 -1 3021 1342238912 -733956942 -855317695 -34112001 -706616079
        -107088461 -430580737 -1052705</internalNodes>
      <leafValues>
        -3.2415163516998291e-01 3.9625829458236694e-01</leafValues></_>
    <_>
      <internalNodes>
        0 -1 141200 802519287 -805576769 2030564735 -544288937
        1539644277 -16914401 -1079301125 -983273</internalNodes>
      <leafValues>
        -3.5992902517318726e-01 3.3768132328987122e-01</leafValues></_>
    <_>
      <internalNodes>
        0 -1 28216 -1568958497 -1892714888 92999135 -1408878468
        1328175579 -891094856 -556107663 -34075499</internalNodes>
      <leafValues>
        -3.8317358493804932e-01 2.7125036716461182e-01</leafValues></_>
    <_>
      <internalNodes>
        0 -1 97545 773854325 -1106715149 -136839169 -805534785
        -1277011459 -319042651 -17154051 -1342689356</internalNodes>
      <leafValues>
        -4.3617385625839233e-01 2.1777799725532532e-01</leafValues></_>
    <_>
      <internalNodes>
        0 -1 43604 -349229233 1874310239 -258418339 -495649469
        -347649491 -874825609 -152372698 -462225562</internalNodes>
      <leafValues>
        -4.1224414110183716e-01 2.4359904229640961e-01</leafValues></_></weakClassifiers></stage0>
</opencv_storage>
