<?xml version="1.0"?>
<opencv_storage>
<stage5>
  <maxWeakCount>7</maxWeakCount>
  <stageThreshold>-8.2118260860443115e-01</stageThreshold>
  <weakClassifiers>
    <_>
      <internalNodes>
        0 -1 141142 77711509 -13410704 1878976098 1038679928 108006414
        897023871 -998847078 993010979</internalNodes>
      <leafValues>
        -3.8795182108879089e-01 7.7962237596511841e-01</leafValues></_>
    <_>
      <internalNodes>
        0 -1 5825 1430601997 277217280 16818184 1363247106 -1874739197
        -1006632960 -1065287671 432865289</internalNodes>
      <leafValues>
        -5.3407549858093262e-01 6.2512487173080444e-01</leafValues></_>
    <_>
      <internalNodes>
        0 -1 59394 -800221168 1090601219 270532624 1627389955 67141633
        -1067411680 -2147440625 462561432</internalNodes>
      <leafValues>
        -4.4765642285346985e-01 6.5318483114242554e-01</leafValues></_>
    <_>
      <internalNodes>
        0 -1 30343 1364312698 1157759494 -805240441 -2146434624
        -2063039838 -2130176768 1111621649 -805033841</internalNodes>
      <leafValues>
        -3.6654895544052124e-01 7.6910859346389771e-01</leafValues></_>
    <_>
      <internalNodes>
        0 -1 6382 -1610571698 287721104 870449169 19416096 2098827
        -1910430492 2361560 -1411439606</internalNodes>
      <leafValues>
        -4.2180323600769043e-01 6.7657297849655151e-01</leafValues></_>
    <_>
      <internalNodes>
        0 -1 100800 -1858010977 -1795129332 285212678 -2013265647
        -2147483624 -2147352448 -939522048 -1988001782</internalNodes>
      <leafValues>
        -5.2578496932983398e-01 5.5589956045150757e-01</leafValues></_>
    <_>
      <internalNodes>
        0 -1 131597 1889988659 -1016353990 788475493 -1549599382
        -1930977300 -2065760394 -2067932157 -787936145</internalNodes>
      <leafValues>
        -3.8662040233612061e-01 7.3794305324554443e-01</leafValues></_></weakClassifiers></stage5>
</opencv_storage>
