<?xml version="1.0"?>
<opencv_storage>
<stage4>
  <maxWeakCount>9</maxWeakCount>
  <stageThreshold>-9.4566422700881958e-01</stageThreshold>
  <weakClassifiers>
    <_>
      <internalNodes>
        0 -1 141016 770916313 -765313186 1861943031 565210385 11619524
        -276988051 -1871343873 2146727911</internalNodes>
      <leafValues>
        -4.0953105688095093e-01 7.5014162063598633e-01</leafValues></_>
    <_>
      <internalNodes>
        0 -1 79325 -869688753 1663696229 1811758639 -348655815
        1878641483 -268992514 -990546577 -829769465</internalNodes>
      <leafValues>
        -3.4174737334251404e-01 6.5731805562973022e-01</leafValues></_>
    <_>
      <internalNodes>
        0 -1 112440 -1325395685 357634185 285804680 -2117599089
        1476420634 -1207959407 -1979170815 -269581941</internalNodes>
      <leafValues>
        -4.6629744768142700e-01 5.1749676465988159e-01</leafValues></_>
    <_>
      <internalNodes>
        0 -1 140883 25354302 -1744764285 16809984 -796786664 1074356258
        -1876918262 1661042864 -291397625</internalNodes>
      <leafValues>
        -4.3020355701446533e-01 5.1594167947769165e-01</leafValues></_>
    <_>
      <internalNodes>
        0 -1 75557 539372121 13665536 285212753 -669900789 -1073545079
        -1920466527 -805173238 -74831736</internalNodes>
      <leafValues>
        -4.7765064239501953e-01 4.3766990303993225e-01</leafValues></_>
    <_>
      <internalNodes>
        0 -1 85774 1129829013 51095569 -1520368372 -1044364158
        1695615129 -1469823903 336167810 270729287</internalNodes>
      <leafValues>
        -3.7740719318389893e-01 5.5961060523986816e-01</leafValues></_>
    <_>
      <internalNodes>
        0 -1 1424 1359306873 545497091 82073 -1718583293 -2129559373
        -2134769664 -1845483378 684294273</internalNodes>
      <leafValues>
        -5.0315469503402710e-01 4.1339558362960815e-01</leafValues></_>
    <_>
      <internalNodes>
        0 -1 72591 -1044150757 1966193186 1881727239 -114030548
        327045018 1279698852 1643389130 172957866</internalNodes>
      <leafValues>
        -3.5491910576820374e-01 5.5783408880233765e-01</leafValues></_>
    <_>
      <internalNodes>
        0 -1 133101 -2129551285 1124143169 33159 -846655463 -1971262949
        33554448 -1744797646 -259833855</internalNodes>
      <leafValues>
        -4.4651409983634949e-01 4.3353191018104553e-01</leafValues></_></weakClassifiers></stage4>
</opencv_storage>
