<?xml version="1.0"?>
<opencv_storage>
<stage3>
  <maxWeakCount>11</maxWeakCount>
  <stageThreshold>-7.6851600408554077e-01</stageThreshold>
  <weakClassifiers>
    <_>
      <internalNodes>
        0 -1 6000 1471673439 2012724583 1325313591 -579339009 -285242113
        -79691921 -847999411 2020597371</internalNodes>
      <leafValues>
        -1.3863943517208099e-01 8.2566946744918823e-01</leafValues></_>
    <_>
      <internalNodes>
        0 -1 134605 -378536577 -377569685 -469797009 -406847681
        -352717265 -1477681265 -990538202 -387982297</internalNodes>
      <leafValues>
        -3.1971040368080139e-01 6.2946861982345581e-01</leafValues></_>
    <_>
      <internalNodes>
        0 -1 736 2042453117 1026784997 -8392787 -583144195 -1208244740
        -16809986 -1628525059 -306326023</internalNodes>
      <leafValues>
        -3.4772890806198120e-01 5.6374686956405640e-01</leafValues></_>
    <_>
      <internalNodes>
        0 -1 141294 794885359 -710344706 -16785417 267525246 -2064556256
        -134234251 -600535916 -269108171</internalNodes>
      <leafValues>
        -4.1302528977394104e-01 4.2986989021301270e-01</leafValues></_>
    <_>
      <internalNodes>
        0 -1 86847 -142753953 -46436361 -1081361 1647378215 -272640897
        -2401420 -553853905 -826749404</internalNodes>
      <leafValues>
        -3.9735543727874756e-01 4.2890197038650513e-01</leafValues></_>
    <_>
      <internalNodes>
        0 -1 3433 -629110654 -1304913870 1426080210 777031682
        -1583165888 -1023360883 -1189045064 -72883669</internalNodes>
      <leafValues>
        -4.3862140178680420e-01 3.9253106713294983e-01</leafValues></_>
    <_>
      <internalNodes>
        0 -1 141276 150270461 -792227705 37583 -665714549 823202049
        -1610084344 -2092858927 -611258205</internalNodes>
      <leafValues>
        -4.0322017669677734e-01 3.6780878901481628e-01</leafValues></_>
    <_>
      <internalNodes>
        0 -1 27646 -523802057 -1604612319 -67154194 -260954557
        -977857458 -50332034 -1359968633 -90020313</internalNodes>
      <leafValues>
        -3.5083273053169250e-01 4.4164219498634338e-01</leafValues></_>
    <_>
      <internalNodes>
        0 -1 5200 1909814071 1912963267 16908441 -795279221 -754924967
        8798338 -1609975324 -1129780247</internalNodes>
      <leafValues>
        -3.8876745104789734e-01 3.7312567234039307e-01</leafValues></_>
    <_>
      <internalNodes>
        0 -1 59818 -1073627004 1427177475 1764891539 -1852619263
        1409465579 146136977 -130513521 990873218</internalNodes>
      <leafValues>
        -3.2204431295394897e-01 4.6485137939453125e-01</leafValues></_>
    <_>
      <internalNodes>
        0 -1 3697 73486343 67948549 34973 -1341632421 -1878490495
        -1073741696 -1316781431 -1766982071</internalNodes>
      <leafValues>
        -4.3243724107742310e-01 3.1548881530761719e-01</leafValues></_></weakClassifiers></stage3>
</opencv_storage>
